4.037064409440309642e-01 -1.127652959582331427e+01
2.471056866847073596e+00 -4.068444903352362307e-01
5.389368825245050010e-02 -7.168975942670510193e+00
8.207947486219044908e-01 -7.842553369959142096e+00
-7.490478064827202687e+00 -4.542912512232498479e+00
6.664171481594065582e-01 -5.641161550526667234e+00
4.044575524558042368e+00 -9.662236050670145460e-01
-4.636035670677649989e+00 -6.116573275266460108e+00
8.554113889907240420e+00 -2.388702473730963227e+00
-5.791934495963844576e+00 -1.016006407953219437e+01
-4.343857200627196491e+00 -2.924237197315409542e+00
1.568616085297728446e+00 -3.470949115273358032e+00
1.100463464845835793e+00 -2.812629894184759394e+00
-1.013899962415724665e-01 -3.440627749878896857e+00
9.076296215702264192e+00 -1.237798766621327928e+00
3.276085450252350650e-01 -4.453522441386536634e+00
-6.469877739923750593e-01 -5.573692696998233664e+00
-2.298298950789538164e+00 -7.733303061487691643e+00
-7.725118255990023997e+00 2.054314659146254662e-01
-3.377117056456454769e+00 -9.671163330629007904e-01
