-1.729551027730361623e-01 -1.518929897469822043e-01 -1.238447634985145207e+00 -1.393576935717238285e+00 -7.737859031090110751e-01 -6.070811912498725871e-01 -1.092639173196529589e-01 -1.322655799030897361e+00 -8.178613411879775974e-01 -4.782004040322840877e-01 -1.143046545195228303e+00 -1.264503029353085006e+00 -3.445196046892803121e+00 2.557097817100296155e-01 -1.261909305061561737e+00 1.078040853044411884e-01 -4.995752277035957478e-01 -1.354611308696785921e+00 -1.292839013835020978e+00 1.239996626736356911e+00 1.281466342056881702e-01 8.720003530357194332e-01 -1.770856411220281146e+00 2.277816562693378566e-01 7.275495843065683532e-01 -4.344601055924728894e-01 -2.180112864970999098e+00 -1.785343574532538780e+00 -9.045415246731340897e-01 3.544378456530609262e-03 -1.444389379142162699e+00 -9.355280380490857972e-01 7.209551688000198633e-01 -8.317275470204772425e-01 -1.339378984796380179e+00 -1.118893005424641540e+00 -9.544848928670439381e-02 -4.028110443925380091e-01 -1.775966361469351273e+00 -9.900004773875366038e-01
9.808232990949307117e-01 4.966191052550109619e-01 -4.672517487049236973e-01 5.615205813139170221e-01 -8.596554477087348101e-01 -3.235526573457617072e+00 8.052345681477146577e-01 -4.301600179766075782e-01 -4.236689015375886269e-01 -7.429063902068017144e-01 -1.257532940418108147e+00 3.556221088042030853e-01 -6.486864012888201581e-01 -4.640520703202205000e-01 -4.186719834701190662e-02 -1.177678197626408574e+00 -3.776128457358309820e-01 -9.397943746906858298e-01 1.689463987613206430e-01 -1.396408718932555248e-01 -8.062851476732449951e-01 -1.619286743277587870e-01 3.751643445105312114e-01 -1.713270865131733822e-01 -8.983786246937772724e-01 7.178341783524590236e-02 3.326179891962008361e-01 2.656453744761101687e-02 8.870297647851815848e-01 1.575484308387228305e-01 7.666383627543063017e-01 -8.468858799425277306e-01 -7.235791797254151891e-01 6.142000477300391115e-01 -2.520130759955838129e-01 -6.815647396341922848e-01 8.573436996164254253e-01 -4.496312333898499491e-01 4.813376332489270881e-01 4.498083212896319960e-01
2.354548442642220296e-01 -9.254282766121015857e-01 -3.974428861238243210e-02 -1.230201488738307258e+00 -8.409835282915760768e-01 6.342145006211137304e-01 -2.195611452844949518e+00 -1.080476083234364726e+00 -3.739567057447628629e-01 2.079554204130674433e-01 7.057721784246246965e-01 -2.806971772515688968e-01 9.803114538817184753e-01 -1.481565373587399315e-01 1.285279473219123891e-01 -1.730112366132341428e+00 -2.475294111902139743e-02 -2.149934746124111951e-01 -1.880079151475053223e+00 -1.385534395624858361e-01 -1.194438457101488549e+00 1.639665166111124117e+00 1.175996000861220470e+00 -1.247928814864050828e+00 -4.221087009515310240e-01 -5.787778758106096877e-01 -2.017635769223479869e+00 -1.252221391220179170e+00 -2.794938824342595995e-01 7.414003496577434849e-01 -1.156168650230380290e+00 -2.206553509311040898e-02 -3.764135110413373980e-02 5.125263030621788340e-01 -2.005058584613071293e+00 -2.418472833419900436e-01 2.275803723681129043e-01 6.587714917618943122e-01 -3.942717765235942973e-01 -1.449341375196179227e+00
-1.561318657044899583e+00 -1.728533925534022631e+00 -2.109672119762918463e+00 -1.891796832180029364e+00 -1.505268973272942734e+00 -1.740091175203917873e+00 -3.958231443394535920e-01 -9.480774438257059122e-01 -2.397999674336537268e+00 -3.567663930933442362e-01 5.527447427697268489e-01 -6.666392384348431843e-01 -1.055118293642504979e+00 -1.532114804008682052e+00 -1.399589222065306338e+00 5.618420437405677870e-01 -6.201741165843544651e-02 -4.096657505920049958e-01 -7.625819584693349640e-01 -5.309572078964471809e-01 -1.559811290092555813e+00 -1.815647770185038201e+00 -2.828647183578780311e+00 -1.847463074370201408e-01 -6.154450625491942883e-01 -1.381881573605489688e+00 -4.450278871661994984e+00 -2.351785453290244909e-01 -1.264732347207152330e+00 -1.610287448715537639e+00 -1.884500167045635610e+00 -1.298358553965202722e+00 -2.997097269596483149e-01 -1.227841843748402662e+00 -3.265862967932319449e+00 -1.568777582629013789e+00 -1.098378398075214868e+00 -5.202080441431649049e-01 -8.225649319529196868e-01 -1.278005345049214148e+00
-3.062364546202827609e-01 -5.484156608540708966e-01 -5.302772303052086939e-02 4.623428171376464668e-01 -2.725741651796246945e+00 2.045734289761895308e+00 -1.663772406056624575e+00 -1.792343833661366181e+00 5.580685862128795804e-01 -3.891968491523895013e-01 -3.503944048822905444e+00 -8.350034176254130802e-01 2.834629675915259828e+00 -7.149138559969917539e-01 -2.091455323592198656e+00 1.078429299292175791e+00 -6.709173671081531953e-01 -2.899296372961798429e+00 -1.743494617792800572e+00 -1.864578373184817339e+00 -5.209675706480455526e-01 -6.477616044784594296e-01 1.910169511457244507e-01 -1.591523085927391001e+00 -8.602672131669189537e-02 8.024593868779313077e-02 -1.163023990664365126e+00 -1.852721560157575276e+00 -1.033389572901885378e+00 8.313037091804688083e-01 -1.612546758531134383e+00 -3.837672913529527552e+00 -6.779510498322895984e-01 -5.188717636995139326e-01 6.244997427150388719e-02 2.198190172256063724e-01 -1.292027505897142881e+00 -6.770889516499944971e-02 -1.036672909706870094e+00 1.259311261821839667e-01
4.064394022021289299e-01 5.280518022963374136e-01 -2.649076407902156149e-01 8.552075801097172025e-01 -8.792815281165792252e-01 -1.903420619409572190e+00 -6.980313772871032940e-02 -3.448624549424829100e-01 -5.437240703301799982e-01 1.998170121884172978e+00 -2.716097365125063057e-01 2.166844559276359661e+00 -4.362184552631124035e+00 -1.332490592779131733e+00 -1.986694131031493837e+00 1.253007982163335254e-01 -2.700687228064092782e+00 -1.978914253572303883e+00 -2.863296181356879133e-01 -1.703210664957690579e+00 -1.193408460127159954e+00 -6.450568913117595837e-01 -1.893478598891870091e+00 1.610870027637007207e-01 -1.604142416584427355e+00 -1.857027561693020412e-01 3.198242954770913471e-01 -9.595328496395084950e-02 1.679953231463483798e-01 -1.542358687906782988e-01 -1.319637524329081657e+00 1.046639354500650682e-01 1.055252851727275898e+00 -1.288697286549518539e+00 -6.162532217691343295e-01 -7.450259305209078198e-01 -1.399584771445292031e+00 8.898192766061003844e-01 -6.752223843132818537e-01 -7.245616263522051126e-01
-8.476730303807125111e-01 9.584429499162381294e-01 -6.486266301024464775e-01 -1.323417767949956803e+00 6.607448162861578878e-01 -1.039067332407636046e+00 -1.951174020218670480e+00 4.982717390296226290e-01 -5.172586603677213901e-01 -2.076562023370274179e+00 -1.655983952434870732e+00 4.001656323838497786e-01 -1.954944654236971058e+00 6.767443488312174793e-01 -4.589614094934978961e-01 1.681241027723177073e-01 -2.131637425466493818e-01 3.541232413311609650e-01 -1.380456815386655323e-01 1.746416993678072238e+00 3.506944560449076764e-01 2.134354801850491153e-03 -1.397185683171324744e+00 3.692223224041160656e-01 -8.645434809726192382e-01 -7.025153314384234848e-01 3.602118464442322754e+00 -7.264298153825857196e-03 -2.744853024775978367e-01 -1.709402404111926455e+00 -5.062095304277655083e-01 -2.431152752662612659e+00 5.338892945664784895e-01 -4.292040047034273442e-01 -5.654964903889382333e-01 -3.938772004439168861e-01 -8.318690735556431015e-01 7.392505390311416846e-01 2.512042422395819874e-01 -1.216631402462296785e-01
-7.304186403877929723e-02 6.269078818747906290e-01 3.136061216780626770e-01 -1.259109186415414028e+00 -1.723041226231057932e+00 4.734559834337903617e+00 9.674552772782553101e-01 -8.746163099431355503e-01 9.887573664510486415e-02 -2.901669244112833557e+00 -3.075804308394472830e+00 -1.932590889654406840e+00 -2.232428325396420554e+00 -4.697705886805121911e-01 -4.482312283332075542e-01 1.373064839015793459e-01 -3.277799346905587274e+00 -2.141205281331901578e+00 -5.159793379026806903e-01 -3.184368480098510812e+00 -1.465622337434103750e-01 8.742124717043052717e-01 1.689518496071756637e+00 -9.271413663424395157e-02 -1.908838271461789526e+00 -7.240036058033219035e-01 4.501732945770414163e-01 3.711873271150191722e-01 -5.478968015566522132e-01 -3.226280207179296200e-01 2.323507357201919810e+00 -1.258689707069737818e-01 -1.730113005987286234e+00 -3.091597229607174202e-01 -4.766607098957820199e-01 -4.671345008537745591e-01 -2.231679810073136927e-01 -1.701787611689933977e+00 -1.637790607745207794e+00 1.167402123750846260e-01
-1.556257800490884691e+00 -1.485105609786973702e+00 -1.956220287986185857e+00 -7.153266421389816720e-01 -1.202534093536955923e-01 -1.092891903782926732e+01 -2.112928675265397960e+00 -7.645415543167358718e-01 -1.016056254694438721e+00 -9.174157753254856829e-01 3.545527588310579820e-02 -8.928070073278282504e-01 -1.988945389760399918e+00 -9.413386318871056480e-01 9.520339304206039410e-02 -5.110464965448100472e+00 -1.653563254541232430e+00 8.057186897464078124e-01 -5.133920359126825650e-01 1.403745377001710537e-01 3.229698165762540096e-01 -1.326863257058209955e+00 -1.262239592730693083e+00 3.890522804755583985e-01 -2.439949540819716933e+00 -8.011416026107804900e-01 -2.334179360007516912e+00 2.580481223425001858e-01 -9.311441453112820343e-02 -1.999197805907364733e+00 -6.698898178876283582e-01 9.323030388343722663e-02 -8.607467526428631555e-01 -1.765198274750514607e+00 -2.310135177053417088e+00 -1.841548926028233168e+00 -2.602283289624099938e-01 -1.663852204112428623e+00 -7.982191460983079079e-01 -7.725400559740405182e-01
-1.220718934119068955e+00 -2.428138040705005718e+00 -3.733662745626260548e-01 -2.362559124068600303e-01 -1.623131752030069430e+00 3.737963820920826130e+00 -8.058030342340836150e-01 -2.123591893072721781e+00 -6.844769764192497608e-01 -9.523381698034109055e-01 -1.928149711302937774e+00 -2.715336611577684245e+00 -1.607978782363589376e-01 -4.138089185014303117e-01 -2.698924591374328941e+00 6.664165270747049452e-02 3.398137360935359896e-01 -3.202332489911257629e-01 -1.572839151092869203e+00 -1.851836468030922722e+00 -1.499414223956537562e+00 -6.477066036289508277e-01 4.251234154982433955e-01 -2.216324086580054420e+00 -9.692880962349901264e-01 -1.367741264070981622e+00 -6.976789966036672785e-01 -7.217938187513843751e-01 -2.302246997304059573e+00 -6.115577542292718327e-01 -2.697647129449655054e-03 -1.835768205216505411e+00 -1.590188296260921730e+00 -2.004766829387171878e+00 -1.064474986232171183e+00 -7.269139307153124063e-01 -1.275003597488828744e+00 -1.632171318135024363e+00 -2.033812206087735941e+00 -7.445672833946532787e-01
9.011992313739268790e-01 6.046885946146417501e-01 -9.799376809060543758e-01 4.524015831836684653e-01 2.907286621405820726e-01 -1.008455963383168841e-01 -5.848361899490550631e-01 -4.111052970583710109e-01 -8.728470210633338944e-01 -1.406521252114927845e-01 -7.388720439993926581e-01 1.992384778022866232e-01 1.951301660181126163e-01 3.624345153639412787e-01 5.695980132472403534e-01 -1.182637061533081679e+00 1.250224852785857044e+00 -1.771259424790698478e-01 6.453383921853691474e-01 1.494893364810194303e+00 -7.121332003696815294e-01 -9.085831716671769476e-01 -9.531713272607698073e-01 -9.744584510003885258e-01 -4.036260664716453950e-02 -7.944462463679766717e-01 -1.234453774698704764e+00 4.793476655899107097e-01 -1.658411404903027131e-01 3.255244948712333608e-01 -1.897060205452469617e-01 8.283434743246105292e-01 3.534494970793437829e-02 -3.354975197283101007e-01 3.889343980440772564e-01 -1.891605604947730057e-01 7.659173369522632724e-01 -7.753811383249108458e-01 6.190724218594906292e-01 -7.918305050195938444e-01
-6.843804397027176689e-01 -1.785221727394961988e+00 -1.010541435751036721e+00 -2.132210069417674436e+00 -1.028569452744973189e-01 -5.029475019972129424e-01 1.631341576970345209e+00 -8.870264406295816917e-01 -1.543185741967215030e+00 8.380551865248809795e-01 -1.682147242341729632e+00 -1.195211321281711703e+00 -1.570916840256149971e+00 1.508716011947776603e-01 -7.031860270814022096e-01 1.376174632198050807e+00 8.354147591785351934e-02 -1.426495915045104645e+00 -1.039420356536876477e+00 7.678723920290464466e-01 -1.071179084413248050e+00 -2.218626250383724852e+00 -1.475672845161281499e+00 -7.964133271551033788e-01 1.761118603028382357e-01 -1.349677749882742583e+00 -2.375457057512595060e+00 -1.926636289532734470e+00 -4.053451458629881987e-01 -1.493925546314253783e+00 3.404471892530804289e-01 3.414746699294526899e-01 -3.003268911359368243e+00 7.515843417420545736e-01 -1.221036499050826674e+00 -1.521079118148564335e+00 -7.492766219128916827e-01 1.596292719931997839e+00 -1.550849288981351659e+00 -1.467319516080830777e+00
-8.873518491110913287e-01 1.372293349640478222e-01 -6.570256623898307335e-01 -4.828047386127977125e-01 -9.393343673789481540e-01 8.245313608905396885e-01 -2.970799823071375467e+00 -1.626032300828007982e+00 -2.339089934872266019e-01 1.097769080719470103e-01 -8.642608102199654807e-01 -2.168714403916842948e-01 -1.333029272169638180e+00 -8.965823820988099158e-01 -4.710481571614119067e-01 8.718827892755659503e-02 3.325997131773945070e-01 -8.564711422863335866e-01 -6.521050895405967884e-02 1.161588922682414982e+00 -1.446451336369435570e+00 -4.757817383237231690e-01 1.995381083007873035e-01 -1.688082231164343305e+00 -1.515752404938297326e+00 -7.371409049217702014e-01 8.963093709836821021e-02 -2.890319761572362811e+00 -4.148502462885120257e-01 -1.690924773646178325e+00 -1.031392341062670637e+00 -2.227144837789462706e+00 -2.928673924555985852e+00 -1.976905310066767729e+00 -9.385494750971166145e-01 -8.969270526477991501e-01 -6.029467280651368277e-01 -2.954561560745219140e+00 -7.677656743108267623e-01 1.654700507121660558e-01
-1.238891315525994241e-01 -1.226262478059972905e+00 -3.251601348734613484e-01 -1.695484937004653470e-01 -3.343480806079978662e-01 8.240319626329891678e-01 -2.826515527768319380e+00 -1.034250740176503536e+00 -8.260874922426192368e-01 -8.163474659585815418e-01 1.941453493604727576e-01 -1.998000361179181894e+00 1.197206864452802444e+00 -4.637050842217460556e-01 -1.013243627591418727e+00 -5.683609247485231775e-01 -8.261924144081553290e-02 3.411393797041069598e-01 -1.547967781476697668e+00 -1.024516792145896971e-01 -8.315788219784744362e-01 -1.663137510018665610e+00 4.593537167561556056e-01 -9.811567113277951391e-01 -2.153492776137558185e+00 -1.154810013823196257e+00 -4.952863450547083657e-01 -6.542968456769666652e-01 -6.009218874066604710e-02 -1.779465445690571856e+00 -2.028457204232931299e-01 2.236710230727350535e+00 -4.626504348040237358e-01 -8.307043617563315552e-01 -2.028333660665077254e+00 -8.248784341451437241e-01 -7.249194555250683125e-01 -2.331960802677720546e-01 4.686943353781838351e-01 -1.304133543873244427e+00
-2.395962949839354206e+00 -4.497404327220425047e-01 -1.461572868811924941e+00 -3.372976386633365742e+00 -1.347383536471910559e-01 -1.405891043390285944e+01 -3.699509206562784369e-01 9.760456077725685464e-01 -1.432599218545302922e+00 -1.923701141433964867e+00 3.777686260887664349e-01 2.199154250121614085e-01 -4.835890710248064717e-01 -1.469576842665843985e-01 8.910538824530181978e-01 -3.942956810725079198e+00 -2.180802745630695316e+00 4.291800673910424746e-01 2.368189289113521168e-01 -1.282255450404151231e+00 5.096616148926493006e-02 -1.519464559581281904e+00 -2.606460808927559825e+00 -1.223364107421859748e+00 3.870000591401830392e-01 -8.142725548541868141e-01 -3.166063783127932130e+00 -1.653741622711450310e+00 -8.941859403374612381e-01 -2.479782112968392571e+00 -6.828904175449609371e-01 -1.130948115970459716e-01 1.630902292942942311e-01 -1.000884449473260052e+00 -3.510625641481322390e+00 -2.284655755456148629e+00 -1.118157673445181022e+00 -1.379448833607411107e+00 -6.814741314479620948e-01 -2.163424291365374064e+00
-3.196514640650371247e-02 -2.641034507380279200e-02 -1.132936266973466610e+00 -8.262286215489484942e-01 -6.120370670006695102e-01 -1.107540815142456170e+00 -2.022974270048687906e+00 -5.512644061848768207e-01 -9.168948229822073692e-01 -1.059078730721683570e+00 7.259229809967511216e-01 9.022547460913743489e-02 3.754411474647359470e-02 -1.078156266613425229e+00 4.469231864236837826e-01 1.864660651373649947e-01 -1.008821199429755566e+00 -3.114984034581107508e+00 -4.574065049248572934e-01 4.958094302558577887e-02 -4.994067302211947501e-01 -1.150935465551052195e+00 -8.862521598112262922e-01 -1.600845287240119583e-02 5.272914383119617909e-01 -1.068279751250853060e+00 7.783231425742186405e-01 4.542644028877815821e-01 -3.734454213362957409e-02 -2.256963040197829784e+00 -1.285920483155752692e+00 -1.582425998127616529e+00 1.877603034977868013e-01 -1.855567306145375905e+00 -1.577302397485472962e+00 -1.505075681913184971e+00 -4.281914691897362180e-01 -7.136659761179552364e-01 -4.781018018588942264e-01 -1.688429468929648847e+00
-9.548748977511108960e-01 5.467919627751015588e-01 -7.324136497497690801e-01 -8.014121482400689001e-01 -6.823561110943368035e-01 7.548221018128726811e-01 -2.022837258048474585e+00 -1.578180870210635023e+00 -3.616995452953991053e-01 -1.606512615774191133e+00 -1.038456003791462079e+00 -1.087516971017241429e+00 6.313872679789847009e-01 -9.536393740511429629e-01 3.122555336549680538e-01 3.049187345893945023e-01 -5.718832321994061774e-01 -3.655100705946122464e+00 -3.111399950403910264e-01 4.313506805033751612e-01 -4.991675669280527528e-01 -9.471743239627294919e-01 -1.887113392303577442e+00 -7.254174887556974483e-01 -1.239106219352681171e+00 -1.910119093897840944e-02 2.338592347896396806e+00 -1.163026680624475562e+00 2.688323541043221576e-01 -1.781239278448118801e+00 4.418066014317972301e-01 7.341694991676730453e-01 -1.007260103205218416e+00 7.211278813534589549e-01 -2.091201008895351987e-01 -7.342009678582252230e-02 -6.510017492385604676e-01 -1.842238251847518216e+00 3.168054493829639551e-01 5.967672621008558442e-01
-4.841958583926969095e-01 -5.223702237765379675e-01 -3.313931079687184034e-01 1.555220385948792583e-01 -1.031119325151730992e+00 3.073111659620045288e-01 1.782598113088513792e-01 -1.078273823682213806e+00 -6.994565307979894175e-01 2.770130269428958236e+00 -3.666379916774987091e+00 8.754501080322265594e-01 -1.259724063404749073e+00 -9.762187048051943483e-01 -2.062891237647811682e+00 -8.512954634986535929e-01 -2.512987879290719206e+00 3.117408480585224795e-01 -8.008999466127444400e-01 -2.845114839311303268e+00 -1.485581058121473230e+00 -2.351653708239553053e-01 7.179086393326331583e-01 -2.293745150004055655e-01 8.765235004265074792e-02 -8.454177292442498493e-01 -2.661909322399057531e-01 -2.067159690014829909e+00 -1.239298900310051410e+00 -1.857055794831783957e-01 -1.536471601289273847e+00 -1.051084267584352805e+00 6.014491605264165458e-02 6.302278823932735419e-01 7.688351079084515538e-02 -5.573738596851544047e-01 -4.946115727491860042e-02 -9.930684992110597742e-01 -6.671509874838618126e-01 -2.052320318111768849e+00
3.567125341331242594e-01 3.470989275361304749e-01 2.609306344202038108e-01 7.812878129053552057e-01 -1.405413982249210880e+00 -2.822444750416292614e+00 -4.944321849682178360e-01 -1.344767392381228444e+00 1.146557562752261034e-01 1.454952635418543527e-01 -3.009220089332363290e+00 -9.313901342177761666e-01 2.285482062999437680e+00 -6.053282225413905149e-01 -8.488219909915637462e-01 -2.417742819943096144e+00 -1.025371843257492088e+00 -1.297376028931496617e+00 3.637577670867364055e-01 -3.168638282243421589e+00 4.091525210920471389e-01 -5.584988073500075645e-01 -9.240767026897157843e-02 -1.173571098670165153e-01 -1.106144060143143815e+00 6.439900575457679910e-01 2.185614709320002347e-01 -9.837888932390974617e-01 -6.789621560587441040e-01 5.602585112944757917e-01 -6.346145857127910572e-01 -1.880281685768619759e+00 -6.439268323387570270e-01 4.109958139907593511e-01 2.397274328905802387e-01 4.393669318507512633e-01 -3.298846925973553668e-01 -1.340200679688347218e+00 -3.894330006901297603e-01 -3.212438989163313163e-01
-1.079997656396506578e+00 -1.241197628213924903e-01 -9.818059368524113539e-01 -1.034037147162909287e+00 -1.133512912221024571e+00 2.788158574230702236e+00 2.982113372385470362e-01 -4.634786837758640976e-01 -8.463358993910843897e-02 -2.535624944539207615e+00 -8.015386481834455568e-01 3.832250882332934871e-01 5.395130171936168839e-01 -7.896283505141815651e-01 -1.262453512551637257e-02 -1.103990480893995096e+00 -1.934237528919299898e+00 -1.573620884304458345e+00 -8.436709933193539124e-01 -1.150341416240179493e+00 -6.305748675450062457e-01 1.975742874951407768e-01 -2.059281552649109504e+00 -2.607378281826330246e-01 -1.586458785167635277e+00 -8.125082065637724282e-01 1.313030651295575002e-01 -6.363960388481375574e-01 -9.566983663710576513e-01 -1.791840983258445319e-01 -1.114928126362406458e+00 -1.981377232816476708e+00 -1.061828840552685227e+00 8.531572071633799492e-01 -1.345738581880426610e+00 7.684098134751200099e-03 -1.035191668474447324e+00 -2.924901652077957159e+00 -7.424100215230056143e-01 2.360402717744486054e-02
