1.114483994327471361e+00
1.309042749692167051e+00
-2.048387445271105667e-01
1.229337745264714954e+00
-8.564152970034508150e-02
1.700263525140009557e+00
-8.635331262980675548e-01
1.337038589381110754e+00
-9.349137150851255518e-01
6.186382875872974418e-01
-9.641011305561910660e-01
-8.276243749829366170e-01
7.285206525025269553e-01
-8.955234625467725085e-01
-1.572917494550150286e+00
8.498862733049252771e-01
-1.966858334517300078e+00
-1.012849146237668974e+00
1.044299654062404992e+00
-8.908872061709587342e-01
-2.682825071566723452e-01
8.354484295716323450e-01
-6.748007646120460779e-01
-9.189044281471250297e-01
-1.167389360503263251e+00
-5.130214778785671115e-01
-1.039712606431587361e+00
-1.449776436297154580e+00
3.938770459030057625e-01
2.389991852589951726e+00
-1.092502265110646853e+00
-8.978177045960492597e-01
-9.416213740361366602e-01
-1.051084414323681493e+00
3.346857963912962308e+00
5.329941185003020943e-01
2.369289976798880926e-01
-8.635147406985521634e-01
4.617835501557083777e-01
-1.280883566300781151e+00
